<?xml version="1.0"?>
<opencv_storage>
<cascade>
  <stageType>BOOST</stageType>
  <featureType>HAAR</featureType>
  <height>20</height>
  <width>20</width>
  <stageParams>
    <boostType>GAB</boostType>
    <minHitRate>0.99500000476837158</minHitRate>
    <maxFalseAlarm>0.5</maxFalseAlarm>
    <weightTrimRate>0.94999999999999996</weightTrimRate>
    <maxDepth>1</maxDepth>
    <maxWeakCount>100</maxWeakCount></stageParams>
  <featureParams>
    <maxCatCount>0</maxCatCount>
    <featSize>1</featSize>
    <mode>ALL</mode></featureParams>
  <stageNum>11</stageNum>
  <stages>
    <!-- stage 0 -->
    <_>
      <maxWeakCount>1</maxWeakCount>
      <stageThreshold>0.99840062856674194</stageThreshold>
      <weakClassifiers>
        <_>
          <internalNodes>
            0 -1 26 0.18000900745391846</internalNodes>
          <leafValues>
            -0.99732977151870728 0.99840062856674194</leafValues></_></weakClassifiers></_>
    <!-- stage 1 -->
    <_>
      <maxWeakCount>2</maxWeakCount>
      <stageThreshold>-0.14918613433837891</stageThreshold>
      <weakClassifiers>
        <_>
          <internalNodes>
            0 -1 25 0.46370571851730347</internalNodes>
          <leafValues>
            -0.7420661449432373 0.91631799936294556</leafValues></_>
        <_>
          <internalNodes>
            0 -1 61 -0.03110915794968605</internalNodes>
          <leafValues>
            -0.90965867042541504 0.59288007020950317</leafValues></_></weakClassifiers></_>
    <!-- stage 2 -->
    <_>
      <maxWeakCount>5</maxWeakCount>
      <stageThreshold>-0.59539198875427246</stageThreshold>
      <weakClassifiers>
        <_>
          <internalNodes>
            0 -1 18 0.67020034790039062</internalNodes>
          <leafValues>
            -0.61310452222824097 0.82138752937316895</leafValues></_>
        <_>
          <internalNodes>
            0 -1 81 -0.00025599688524380326</internalNodes>
          <leafValues>
            0.59801334142684937 -0.41193655133247375</leafValues></_>
        <_>
          <internalNodes>
            0 -1 63 -2.4956694687716663e-05</internalNodes>
          <leafValues>
            0.61316615343093872 -0.36166438460350037</leafValues></_>
        <_>
          <internalNodes>
            0 -1 73 -2.7209025574848056e-05</internalNodes>
          <leafValues>
            0.54384022951126099 -0.32652971148490906</leafValues></_>
        <_>
          <internalNodes>
            0 -1 9 -0.015409375540912151</internalNodes>
          <leafValues>
            -0.76247662305831909 0.26250869035720825</leafValues></_></weakClassifiers></_>
    <!-- stage 3 -->
    <_>
      <maxWeakCount>8</maxWeakCount>
      <stageThreshold>-0.72760438919067383</stageThreshold>
      <weakClassifiers>
        <_>
          <internalNodes>
            0 -1 19 0.53348851203918457</internalNodes>
          <leafValues>
            -0.3627760112285614 0.75688076019287109</leafValues></_>
        <_>
          <internalNodes>
            0 -1 89 -0.00077231554314494133</internalNodes>
          <leafValues>
            0.77914774417877197 -0.14248354732990265</leafValues></_>
        <_>
          <internalNodes>
            0 -1 58 -1.2524224985099863e-05</internalNodes>
          <leafValues>
            0.55828249454498291 -0.32660967111587524</leafValues></_>
        <_>
          <internalNodes>
            0 -1 110 -0.053656287491321564</internalNodes>
          <leafValues>
            -0.80435562133789062 0.22238531708717346</leafValues></_>
        <_>
          <internalNodes>
            0 -1 40 -0.00023698390577919781</internalNodes>
          <leafValues>
            0.56117033958435059 -0.35326960682868958</leafValues></_>
        <_>
          <internalNodes>
            0 -1 76 -0.000351381313521415</internalNodes>
          <leafValues>
            0.33806130290031433 -0.49917393922805786</leafValues></_>
        <_>
          <internalNodes>
            0 -1 14 -0.067387551069259644</internalNodes>
          <leafValues>
            -0.79607075452804565 0.19552735984325409</leafValues></_>
        <_>
          <internalNodes>
            0 -1 47 -3.7572677683783695e-05</internalNodes>
          <leafValues>
            0.37553521990776062 -0.47415512800216675</leafValues></_></weakClassifiers></_>
    <!-- stage 4 -->
    <_>
      <maxWeakCount>10</maxWeakCount>
      <stageThreshold>-0.92914074659347534</stageThreshold>
      <weakClassifiers>
        <_>
          <internalNodes>
            0 -1 12 -0.00021604174980893731</internalNodes>
          <leafValues>
            0.72318339347839355 -0.20184899866580963</leafValues></_>
        <_>
          <internalNodes>
            0 -1 83 -0.00024957745335996151</internalNodes>
          <leafValues>
            0.40060031414031982 -0.54471534490585327</leafValues></_>
        <_>
          <internalNodes>
            0 -1 104 0.085217207670211792</internalNodes>
          <leafValues>
            -0.44521528482437134 0.38821941614151001</leafValues></_>
        <_>
          <internalNodes>
            0 -1 113 -2.7991323804599233e-05</internalNodes>
          <leafValues>
            0.55138224363327026 -0.35865643620491028</leafValues></_>
        <_>
          <internalNodes>
            0 -1 96 -1.2438483281584922e-05</internalNodes>
          <leafValues>
            0.54466277360916138 -0.24741147458553314</leafValues></_>
        <_>
          <internalNodes>
            0 -1 6 -0.10470782220363617</internalNodes>
          <leafValues>
            -0.5180281400680542 0.28723764419555664</leafValues></_>
        <_>
          <internalNodes>
            0 -1 74 -3.0637369491159916e-05</internalNodes>
          <leafValues>
            0.41281616687774658 -0.36928597092628479</leafValues></_>
        <_>
          <internalNodes>
            0 -1 35 0.29172080755233765</internalNodes>
          <leafValues>
            -0.42551827430725098 0.33512619137763977</leafValues></_>
        <_>
          <internalNodes>
            0 -1 79 -0.0023316266015172005</internalNodes>
          <leafValues>
            0.5912739634513855 -0.26584693789482117</leafValues></_>
        <_>
          <internalNodes>
            0 -1 20 0.0031397885177284479</internalNodes>
          <leafValues>
            0.46605026721954346 -0.33300063014030457</leafValues></_></weakClassifiers></_>
    <!-- stage 5 -->
    <_>
      <maxWeakCount>12</maxWeakCount>
      <stageThreshold>-0.486763596534729</stageThreshold>
      <weakClassifiers>
        <_>
          <internalNodes>
            0 -1 57 0.034172765910625458</internalNodes>
          <leafValues>
            0.63742107152938843 -0.69709545373916626</leafValues></_>
        <_>
          <internalNodes>
            0 -1 108 0.00084477372001856565</internalNodes>
          <leafValues>
            -0.38406673073768616 0.56825363636016846</leafValues></_>
        <_>
          <internalNodes>
            0 -1 56 0.096850991249084473</internalNodes>
          <leafValues>
            -0.74865949153900146 0.13944816589355469</leafValues></_>
        <_>
          <internalNodes>
            0 -1 59 -0.00010527990525588393</internalNodes>
          <leafValues>
            0.38690909743309021 -0.33986005187034607</leafValues></_>
        <_>
          <internalNodes>
            0 -1 31 -0.0012156313750892878</internalNodes>
          <leafValues>
            0.45449531078338623 -0.28637972474098206</leafValues></_>
        <_>
          <internalNodes>
            0 -1 2 -0.020918909460306168</internalNodes>
          <leafValues>
            -0.60844379663467407 0.21192692220211029</leafValues></_>
        <_>
          <internalNodes>
            0 -1 75 -0.0050715655088424683</internalNodes>
          <leafValues>
            0.51739013195037842 -0.2387196272611618</leafValues></_>
        <_>
          <internalNodes>
            0 -1 91 -0.0078503992408514023</internalNodes>
          <leafValues>
            0.35155773162841797 -0.30164793133735657</leafValues></_>
        <_>
          <internalNodes>
            0 -1 42 -0.004319116473197937</internalNodes>
          <leafValues>
            0.4556337296962738 -0.19377872347831726</leafValues></_>
        <_>
          <internalNodes>
            0 -1 78 0.00050808093510568142</internalNodes>
          <leafValues>
            0.40365731716156006 -0.27476024627685547</leafValues></_>
        <_>
          <internalNodes>
            0 -1 10 -0.087971702218055725</internalNodes>
          <leafValues>
            -0.90155071020126343 0.12815479934215546</leafValues></_>
        <_>
          <internalNodes>
            0 -1 114 0.0010310644283890724</internalNodes>
          <leafValues>
            -0.53276354074478149 0.15042117238044739</leafValues></_></weakClassifiers></_>
    <!-- stage 6 -->
    <_>
      <maxWeakCount>11</maxWeakCount>
      <stageThreshold>-0.49940198659896851</stageThreshold>
      <weakClassifiers>
        <_>
          <internalNodes>
            0 -1 5 0.0043215886689722538</internalNodes>
          <leafValues>
            -0.024595081806182861 0.73267120122909546</leafValues></_>
        <_>
          <internalNodes>
            0 -1 25 0.65324681997299194</internalNodes>
          <leafValues>
            -0.4240577220916748 0.36548948287963867</leafValues></_>
        <_>
          <internalNodes>
            0 -1 33 0.0049495985731482506</internalNodes>
          <leafValues>
            0.3668750524520874 -0.37051716446876526</leafValues></_>
        <_>
          <internalNodes>
            0 -1 94 -0.00024219734768848866</internalNodes>
          <leafValues>
            0.22221960127353668 -0.48857900500297546</leafValues></_>
        <_>
          <internalNodes>
            0 -1 16 -0.049685746431350708</internalNodes>
          <leafValues>
            -0.80418717861175537 0.12001395970582962</leafValues></_>
        <_>
          <internalNodes>
            0 -1 88 0.011239368468523026</internalNodes>
          <leafValues>
            0.25917276740074158 -0.41539210081100464</leafValues></_>
        <_>
          <internalNodes>
            0 -1 34 -4.5631782995769754e-05</internalNodes>
          <leafValues>
            0.45639437437057495 -0.31857970356941223</leafValues></_>
        <_>
          <internalNodes>
            0 -1 68 0.00070401316042989492</internalNodes>
          <leafValues>
            0.42531841993331909 -0.25975903868675232</leafValues></_>
        <_>
          <internalNodes>
            0 -1 103 -0.057104624807834625</internalNodes>
          <leafValues>
            -0.58172458410263062 0.20678360760211945</leafValues></_>
        <_>
          <internalNodes>
            0 -1 92 0.0010652397759258747</internalNodes>
          <leafValues>
            0.31329095363616943 -0.28433933854103088</leafValues></_>
        <_>
          <internalNodes>
            0 -1 95 -0.0023498055525124073</internalNodes>
          <leafValues>
            0.42026251554489136 -0.2499677985906601</leafValues></_></weakClassifiers></_>
    <!-- stage 7 -->
    <_>
      <maxWeakCount>16</maxWeakCount>
      <stageThreshold>-0.50386250019073486</stageThreshold>
      <weakClassifiers>
        <_>
          <internalNodes>
            0 -1 62 0.10434830188751221</internalNodes>
          <leafValues>
            -0.44122657179832458 0.63571792840957642</leafValues></_>
        <_>
          <internalNodes>
            0 -1 111 -4.3173065932933241e-05</internalNodes>
          <leafValues>
            0.37361207604408264 -0.4195391833782196</leafValues></_>
        <_>
          <internalNodes>
            0 -1 67 0.076839670538902283</internalNodes>
          <leafValues>
            -0.172854945063591 0.681113600730896</leafValues></_>
        <_>
          <internalNodes>
            0 -1 107 0.0018286962294951081</internalNodes>
          <leafValues>
            0.3003801703453064 -0.31300103664398193</leafValues></_>
        <_>
          <internalNodes>
            0 -1 0 -2.9140279366401955e-05</internalNodes>
          <leafValues>
            -1. 0.042569994926452637</leafValues></_>
        <_>
          <internalNodes>
            0 -1 80 -0.091139718890190125</internalNodes>
          <leafValues>
            -0.74559837579727173 0.08003687858581543</leafValues></_>
        <_>
          <internalNodes>
            0 -1 50 -0.3316197395324707</internalNodes>
          <leafValues>
            -0.90102308988571167 0.078717455267906189</leafValues></_>
        <_>
          <internalNodes>
            0 -1 64 -0.022009531036019325</internalNodes>
          <leafValues>
            -0.7077486515045166 0.085947617888450623</leafValues></_>
        <_>
          <internalNodes>
            0 -1 27 0.00011728209938155487</internalNodes>
          <leafValues>
            -0.40304663777351379 0.24100430309772491</leafValues></_>
        <_>
          <internalNodes>
            0 -1 101 0.0014440140221267939</internalNodes>
          <leafValues>
            -0.11054567992687225 0.61937886476516724</leafValues></_>
        <_>
          <internalNodes>
            0 -1 45 -0.037001632153987885</internalNodes>
          <leafValues>
            -0.38640511035919189 0.24316398799419403</leafValues></_>
        <_>
          <internalNodes>
            0 -1 30 -0.0018551141256466508</internalNodes>
          <leafValues>
            0.21641603112220764 -0.34650212526321411</leafValues></_>
        <_>
          <internalNodes>
            0 -1 4 -0.016341473907232285</internalNodes>
          <leafValues>
            -0.44698947668075562 0.16187107563018799</leafValues></_>
        <_>
          <internalNodes>
            0 -1 71 0.0016185254789888859</internalNodes>
          <leafValues>
            0.25076097249984741 -0.32580998539924622</leafValues></_>
        <_>
          <internalNodes>
            0 -1 66 0.0012428523041307926</internalNodes>
          <leafValues>
            0.3530118465423584 -0.23538976907730103</leafValues></_>
        <_>
          <internalNodes>
            0 -1 13 -0.028450891375541687</internalNodes>
          <leafValues>
            -0.51847684383392334 0.1668337881565094</leafValues></_></weakClassifiers></_>
    <!-- stage 8 -->
    <_>
      <maxWeakCount>20</maxWeakCount>
      <stageThreshold>-0.65974241495132446</stageThreshold>
      <weakClassifiers>
        <_>
          <internalNodes>
            0 -1 106 -0.00029012165032327175</internalNodes>
          <leafValues>
            0.65858989953994751 -0.11374876648187637</leafValues></_>
        <_>
          <internalNodes>
            0 -1 11 -0.052964203059673309</internalNodes>
          <leafValues>
            -0.3991081714630127 0.30029565095901489</leafValues></_>
        <_>
          <internalNodes>
            0 -1 23 0.18995805084705353</internalNodes>
          <leafValues>
            -0.15135206282138824 0.60194319486618042</leafValues></_>
        <_>
          <internalNodes>
            0 -1 98 0.019529839977622032</internalNodes>
          <leafValues>
            0.11235688626766205 -0.76870006322860718</leafValues></_>
        <_>
          <internalNodes>
            0 -1 17 0.0057575730606913567</internalNodes>
          <leafValues>
            -0.27822992205619812 0.26190486550331116</leafValues></_>
        <_>
          <internalNodes>
            0 -1 48 0.035133704543113708</internalNodes>
          <leafValues>
            -0.15975354611873627 0.62928259372711182</leafValues></_>
        <_>
          <internalNodes>
            0 -1 53 -0.0017182016745209694</internalNodes>
          <leafValues>
            0.21137121319770813 -0.43256273865699768</leafValues></_>
        <_>
          <internalNodes>
            0 -1 87 7.7118733315728605e-05</internalNodes>
          <leafValues>
            0.22836224734783173 -0.33707553148269653</leafValues></_>
        <_>
          <internalNodes>
            0 -1 36 -0.095122069120407104</internalNodes>
          <leafValues>
            0.44286763668060303 -0.17111805081367493</leafValues></_>
        <_>
          <internalNodes>
            0 -1 70 0.0029583950527012348</internalNodes>
          <leafValues>
            0.19134041666984558 -0.37058275938034058</leafValues></_>
        <_>
          <internalNodes>
            0 -1 69 0.047449618577957153</internalNodes>
          <leafValues>
            -0.11494285613298416 0.68451637029647827</leafValues></_>
        <_>
          <internalNodes>
            0 -1 115 -7.2090086177922785e-05</internalNodes>
          <leafValues>
            0.36397683620452881 -0.18369053304195404</leafValues></_>
        <_>
          <internalNodes>
            0 -1 3 0.088836550712585449</internalNodes>
          <leafValues>
            -0.6196516752243042 0.10688988119363785</leafValues></_>
        <_>
          <internalNodes>
            0 -1 73 9.9645090813282877e-05</internalNodes>
          <leafValues>
            0.22877195477485657 -0.29611444473266602</leafValues></_>
        <_>
          <internalNodes>
            0 -1 22 -7.4314688390586525e-05</internalNodes>
          <leafValues>
            0.26482695341110229 -0.31635028123855591</leafValues></_>
        <_>
          <internalNodes>
            0 -1 51 -0.19009903073310852</internalNodes>
          <leafValues>
            -0.74571514129638672 0.091678217053413391</leafValues></_>
        <_>
          <internalNodes>
            0 -1 100 9.5163282821886241e-05</internalNodes>
          <leafValues>
            0.19254116714000702 -0.3348899781703949</leafValues></_>
        <_>
          <internalNodes>
            0 -1 113 -0.00047044738312251866</internalNodes>
          <leafValues>
            0.33027976751327515 -0.24777719378471375</leafValues></_>
        <_>
          <internalNodes>
            0 -1 90 0.089189410209655762</internalNodes>
          <leafValues>
            -0.24305938184261322 0.28319132328033447</leafValues></_>
        <_>
          <internalNodes>
            0 -1 24 0.00031589239370077848</internalNodes>
          <leafValues>
            -0.26808103919029236 0.28064441680908203</leafValues></_></weakClassifiers></_>
    <!-- stage 9 -->
    <_>
      <maxWeakCount>17</maxWeakCount>
      <stageThreshold>-0.24643412232398987</stageThreshold>
      <weakClassifiers>
        <_>
          <internalNodes>
            0 -1 116 0.0010046600364148617</internalNodes>
          <leafValues>
            0.58856236934661865 -1.</leafValues></_>
        <_>
          <internalNodes>
            0 -1 23 0.17490050196647644</internalNodes>
          <leafValues>
            -0.12876446545124054 0.52124571800231934</leafValues></_>
        <_>
          <internalNodes>
            0 -1 54 0.049876872450113297</internalNodes>
          <leafValues>
            0.1094670295715332 -0.93812751770019531</leafValues></_>
        <_>
          <internalNodes>
            0 -1 21 0.0010283183073624969</internalNodes>
          <leafValues>
            0.21079407632350922 -0.33150041103363037</leafValues></_>
        <_>
          <internalNodes>
            0 -1 102 -0.00064673624001443386</internalNodes>
          <leafValues>
            0.32404607534408569 -0.22436322271823883</leafValues></_>
        <_>
          <internalNodes>
            0 -1 84 -0.00015289783186744899</internalNodes>
          <leafValues>
            0.098153755068778992 -0.55881917476654053</leafValues></_>
        <_>
          <internalNodes>
            0 -1 39 0.17587509751319885</internalNodes>
          <leafValues>
            0.070301897823810577 -0.95305049419403076</leafValues></_>
        <_>
          <internalNodes>
            0 -1 29 9.4209215603768826e-05</internalNodes>
          <leafValues>
            0.27157720923423767 -0.23228719830513</leafValues></_>
        <_>
          <internalNodes>
            0 -1 8 0.017120145261287689</internalNodes>
          <leafValues>
            0.32475009560585022 -0.24340470135211945</leafValues></_>
        <_>
          <internalNodes>
            0 -1 52 0.0050934371538460255</internalNodes>
          <leafValues>
            0.15732143819332123 -0.47316095232963562</leafValues></_>
        <_>
          <internalNodes>
            0 -1 46 -0.00011145468306494877</internalNodes>
          <leafValues>
            0.15556199848651886 -0.39457395672798157</leafValues></_>
        <_>
          <internalNodes>
            0 -1 93 -0.0040241875685751438</internalNodes>
          <leafValues>
            -0.23185834288597107 0.33300045132637024</leafValues></_>
        <_>
          <internalNodes>
            0 -1 72 0.0014397865161299706</internalNodes>
          <leafValues>
            0.20844689011573792 -0.37995526194572449</leafValues></_>
        <_>
          <internalNodes>
            0 -1 109 -0.027634665369987488</internalNodes>
          <leafValues>
            0.23252902925014496 -0.33430543541908264</leafValues></_>
        <_>
          <internalNodes>
            0 -1 38 0.00012262866948731244</internalNodes>
          <leafValues>
            -0.30014818906784058 0.21829365193843842</leafValues></_>
        <_>
          <internalNodes>
            0 -1 49 0.114055335521698</internalNodes>
          <leafValues>
            -0.14279328286647797 0.54833871126174927</leafValues></_>
        <_>
          <internalNodes>
            0 -1 60 0.00038018985651433468</internalNodes>
          <leafValues>
            0.12342547625303268 -0.57195234298706055</leafValues></_></weakClassifiers></_>
    <!-- stage 10 -->
    <_>
      <maxWeakCount>19</maxWeakCount>
      <stageThreshold>-0.30389884114265442</stageThreshold>
      <weakClassifiers>
        <_>
          <internalNodes>
            0 -1 32 0.0012810969492420554</internalNodes>
          <leafValues>
            0.033726811408996582 0.65111029148101807</leafValues></_>
        <_>
          <internalNodes>
            0 -1 112 -0.02728692814707756</internalNodes>
          <leafValues>
            0.31882333755493164 -0.25550490617752075</leafValues></_>
        <_>
          <internalNodes>
            0 -1 82 -0.0010679533006623387</internalNodes>
          <leafValues>
            0.18045297265052795 -0.41246575117111206</leafValues></_>
        <_>
          <internalNodes>
            0 -1 41 -0.3605722188949585</internalNodes>
          <leafValues>
            -0.89080464839935303 0.067685253918170929</leafValues></_>
        <_>
          <internalNodes>
            0 -1 15 0.042684581130743027</internalNodes>
          <leafValues>
            0.05492250993847847 -0.84111183881759644</leafValues></_>
        <_>
          <internalNodes>
            0 -1 28 0.00023859832435846329</internalNodes>
          <leafValues>
            -0.25433868169784546 0.23284491896629333</leafValues></_>
        <_>
          <internalNodes>
            0 -1 37 0.026747949421405792</internalNodes>
          <leafValues>
            -0.13667583465576172 0.44746732711791992</leafValues></_>
        <_>
          <internalNodes>
            0 -1 55 0.0044485358521342278</internalNodes>
          <leafValues>
            0.069579966366291046 -0.70779681205749512</leafValues></_>
        <_>
          <internalNodes>
            0 -1 44 -0.089272141456604004</internalNodes>
          <leafValues>
            0.40607351064682007 -0.16445490717887878</leafValues></_>
        <_>
          <internalNodes>
            0 -1 97 0.0015683898236602545</internalNodes>
          <leafValues>
            0.23404303193092346 -0.25352844595909119</leafValues></_>
        <_>
          <internalNodes>
            0 -1 85 0.0010074243182316422</internalNodes>
          <leafValues>
            0.21344482898712158 -0.33301782608032227</leafValues></_>
        <_>
          <internalNodes>
            0 -1 105 0.016052056103944778</internalNodes>
          <leafValues>
            -0.25481101870536804 0.29100233316421509</leafValues></_>
        <_>
          <internalNodes>
            0 -1 77 -0.0089166723191738129</internalNodes>
          <leafValues>
            0.3576795756816864 -0.17742592096328735</leafValues></_>
        <_>
          <internalNodes>
            0 -1 1 -0.14124083518981934</internalNodes>
          <leafValues>
            -0.68415975570678711 0.083431720733642578</leafValues></_>
        <_>
          <internalNodes>
            0 -1 7 -0.14004755020141602</internalNodes>
          <leafValues>
            -0.86296582221984863 0.061455845832824707</leafValues></_>
        <_>
          <internalNodes>
            0 -1 43 0.00018888423801399767</internalNodes>
          <leafValues>
            -0.32409077882766724 0.18542826175689697</leafValues></_>
        <_>
          <internalNodes>
            0 -1 99 0.011876152828335762</internalNodes>
          <leafValues>
            0.062054891139268875 -0.82091659307479858</leafValues></_>
        <_>
          <internalNodes>
            0 -1 65 -0.060767658054828644</internalNodes>
          <leafValues>
            -0.96257680654525757 0.043738704174757004</leafValues></_>
        <_>
          <internalNodes>
            0 -1 86 0.0033299708738923073</internalNodes>
          <leafValues>
            0.16986159980297089 -0.32070475816726685</leafValues></_></weakClassifiers></_></stages>
  <features>
    <_>
      <rects>
        <_>
          0 0 4 20 -1.</_>
        <_>
          2 0 2 20 2.</_></rects>
      <tilted>0</tilted></_>
    <_>
      <rects>
        <_>
          0 0 20 16 -1.</_>
        <_>
          0 0 10 8 2.</_>
        <_>
          10 8 10 8 2.</_></rects>
      <tilted>0</tilted></_>
    <_>
      <rects>
        <_>
          0 0 12 18 -1.</_>
        <_>
          0 6 12 6 2.</_></rects>
      <tilted>0</tilted></_>
    <_>
      <rects>
        <_>
          0 1 16 13 -1.</_>
        <_>
          4 1 8 13 2.</_></rects>
      <tilted>0</tilted></_>
    <_>
      <rects>
        <_>
          0 1 20 3 -1.</_>
        <_>
          0 2 20 1 2.</_></rects>
      <tilted>0</tilted></_>
    <_>
      <rects>
        <_>
          0 3 6 17 -1.</_>
        <_>
          3 3 3 17 2.</_></rects>
      <tilted>0</tilted></_>
    <_>
      <rects>
        <_>
          0 4 9 16 -1.</_>
        <_>
          3 4 3 16 2.</_></rects>
      <tilted>0</tilted></_>
    <_>
      <rects>
        <_>
          0 4 20 5 -1.</_>
        <_>
          10 4 10 5 2.</_></rects>
      <tilted>0</tilted></_>
    <_>
      <rects>
        <_>
          0 4 20 8 -1.</_>
        <_>
          0 6 20 4 2.</_></rects>
      <tilted>0</tilted></_>
    <_>
      <rects>
        <_>
          0 5 18 15 -1.</_>
        <_>
          6 5 6 15 2.</_></rects>
      <tilted>0</tilted></_>
    <_>
      <rects>
        <_>
          0 5 18 8 -1.</_>
        <_>
          9 5 9 8 2.</_></rects>
      <tilted>0</tilted></_>
    <_>
      <rects>
        <_>
          0 11 16 8 -1.</_>
        <_>
          0 13 16 4 2.</_></rects>
      <tilted>0</tilted></_>
    <_>
      <rects>
        <_>
          0 13 18 6 -1.</_>
        <_>
          0 16 18 3 2.</_></rects>
      <tilted>0</tilted></_>
    <_>
      <rects>
        <_>
          0 13 20 3 -1.</_>
        <_>
          0 14 20 1 2.</_></rects>
      <tilted>0</tilted></_>
    <_>
      <rects>
        <_>
          0 13 20 6 -1.</_>
        <_>
          0 15 20 2 2.</_></rects>
      <tilted>0</tilted></_>
    <_>
      <rects>
        <_>
          0 14 16 2 -1.</_>
        <_>
          8 14 8 2 2.</_></rects>
      <tilted>0</tilted></_>
    <_>
      <rects>
        <_>
          0 14 20 6 -1.</_>
        <_>
          0 16 20 2 2.</_></rects>
      <tilted>0</tilted></_>
    <_>
      <rects>
        <_>
          1 3 4 17 -1.</_>
        <_>
          3 3 2 17 2.</_></rects>
      <tilted>0</tilted></_>
    <_>
      <rects>
        <_>
          1 4 18 12 -1.</_>
        <_>
          7 8 6 4 9.</_></rects>
      <tilted>0</tilted></_>
    <_>
      <rects>
        <_>
          1 6 18 9 -1.</_>
        <_>
          7 9 6 3 9.</_></rects>
      <tilted>0</tilted></_>
    <_>
      <rects>
        <_>
          1 9 18 4 -1.</_>
        <_>
          1 10 18 2 2.</_></rects>
      <tilted>0</tilted></_>
    <_>
      <rects>
        <_>
          1 10 18 4 -1.</_>
        <_>
          1 11 18 2 2.</_></rects>
      <tilted>0</tilted></_>
    <_>
      <rects>
        <_>
          1 14 13 2 -1.</_>
        <_>
          1 15 13 1 2.</_></rects>
      <tilted>0</tilted></_>
    <_>
      <rects>
        <_>
          2 0 16 2 -1.</_>
        <_>
          6 4 8 2 2.</_></rects>
      <tilted>1</tilted></_>
    <_>
      <rects>
        <_>
          2 1 12 4 -1.</_>
        <_>
          2 3 12 2 2.</_></rects>
      <tilted>0</tilted></_>
    <_>
      <rects>
        <_>
          2 4 15 12 -1.</_>
        <_>
          7 8 5 4 9.</_></rects>
      <tilted>0</tilted></_>
    <_>
      <rects>
        <_>
          2 6 18 9 -1.</_>
        <_>
          8 9 6 3 9.</_></rects>
      <tilted>0</tilted></_>
    <_>
      <rects>
        <_>
          2 7 11 2 -1.</_>
        <_>
          2 7 11 1 2.</_></rects>
      <tilted>1</tilted></_>
    <_>
      <rects>
        <_>
          2 8 10 2 -1.</_>
        <_>
          2 8 10 1 2.</_></rects>
      <tilted>1</tilted></_>
    <_>
      <rects>
        <_>
          2 9 16 4 -1.</_>
        <_>
          2 10 16 2 2.</_></rects>
      <tilted>0</tilted></_>
    <_>
      <rects>
        <_>
          2 13 11 2 -1.</_>
        <_>
          2 14 11 1 2.</_></rects>
      <tilted>0</tilted></_>
    <_>
      <rects>
        <_>
          3 4 3 12 -1.</_>
        <_>
          3 7 3 6 2.</_></rects>
      <tilted>0</tilted></_>
    <_>
      <rects>
        <_>
          3 6 4 14 -1.</_>
        <_>
          5 6 2 14 2.</_></rects>
      <tilted>0</tilted></_>
    <_>
      <rects>
        <_>
          3 6 6 8 -1.</_>
        <_>
          3 8 6 4 2.</_></rects>
      <tilted>0</tilted></_>
    <_>
      <rects>
        <_>
          3 8 9 1 -1.</_>
        <_>
          6 11 3 1 3.</_></rects>
      <tilted>1</tilted></_>
    <_>
      <rects>
        <_>
          3 8 15 6 -1.</_>
        <_>
          8 10 5 2 9.</_></rects>
      <tilted>0</tilted></_>
    <_>
      <rects>
        <_>
          3 10 9 6 -1.</_>
        <_>
          6 12 3 2 9.</_></rects>
      <tilted>0</tilted></_>
    <_>
      <rects>
        <_>
          4 0 2 12 -1.</_>
        <_>
          4 3 2 6 2.</_></rects>
      <tilted>0</tilted></_>
    <_>
      <rects>
        <_>
          4 0 6 6 -1.</_>
        <_>
          4 3 6 3 2.</_></rects>
      <tilted>0</tilted></_>
    <_>
      <rects>
        <_>
          4 1 16 8 -1.</_>
        <_>
          8 1 8 8 2.</_></rects>
      <tilted>0</tilted></_>
    <_>
      <rects>
        <_>
          4 4 3 12 -1.</_>
        <_>
          4 7 3 6 2.</_></rects>
      <tilted>0</tilted></_>
    <_>
      <rects>
        <_>
          4 7 13 12 -1.</_>
        <_>
          4 13 13 6 2.</_></rects>
      <tilted>0</tilted></_>
    <_>
      <rects>
        <_>
          4 8 9 1 -1.</_>
        <_>
          7 11 3 1 3.</_></rects>
      <tilted>1</tilted></_>
    <_>
      <rects>
        <_>
          4 9 7 4 -1.</_>
        <_>
          4 9 7 2 2.</_></rects>
      <tilted>1</tilted></_>
    <_>
      <rects>
        <_>
          4 11 9 6 -1.</_>
        <_>
          7 13 3 2 9.</_></rects>
      <tilted>0</tilted></_>
    <_>
      <rects>
        <_>
          4 12 15 8 -1.</_>
        <_>
          4 14 15 4 2.</_></rects>
      <tilted>0</tilted></_>
    <_>
      <rects>
        <_>
          4 13 15 2 -1.</_>
        <_>
          4 14 15 1 2.</_></rects>
      <tilted>0</tilted></_>
    <_>
      <rects>
        <_>
          4 14 15 6 -1.</_>
        <_>
          4 17 15 3 2.</_></rects>
      <tilted>0</tilted></_>
    <_>
      <rects>
        <_>
          5 4 9 4 -1.</_>
        <_>
          8 4 3 4 2.</_></rects>
      <tilted>0</tilted></_>
    <_>
      <rects>
        <_>
          5 5 8 4 -1.</_>
        <_>
          7 7 4 4 2.</_></rects>
      <tilted>1</tilted></_>
    <_>
      <rects>
        <_>
          5 6 12 12 -1.</_>
        <_>
          5 12 12 6 2.</_></rects>
      <tilted>0</tilted></_>
    <_>
      <rects>
        <_>
          5 9 14 7 -1.</_>
        <_>
          12 9 7 7 2.</_></rects>
      <tilted>0</tilted></_>
    <_>
      <rects>
        <_>
          5 11 14 4 -1.</_>
        <_>
          5 12 14 2 2.</_></rects>
      <tilted>0</tilted></_>
    <_>
      <rects>
        <_>
          5 12 8 2 -1.</_>
        <_>
          5 13 8 1 2.</_></rects>
      <tilted>0</tilted></_>
    <_>
      <rects>
        <_>
          6 0 8 4 -1.</_>
        <_>
          8 2 4 4 2.</_></rects>
      <tilted>1</tilted></_>
    <_>
      <rects>
        <_>
          6 3 3 5 -1.</_>
        <_>
          7 4 1 5 3.</_></rects>
      <tilted>1</tilted></_>
    <_>
      <rects>
        <_>
          6 3 12 2 -1.</_>
        <_>
          10 7 4 2 3.</_></rects>
      <tilted>1</tilted></_>
    <_>
      <rects>
        <_>
          6 5 10 8 -1.</_>
        <_>
          11 5 5 8 2.</_></rects>
      <tilted>0</tilted></_>
    <_>
      <rects>
        <_>
          6 8 6 4 -1.</_>
        <_>
          8 10 2 4 3.</_></rects>
      <tilted>1</tilted></_>
    <_>
      <rects>
        <_>
          6 9 6 3 -1.</_>
        <_>
          8 11 2 3 3.</_></rects>
      <tilted>1</tilted></_>
    <_>
      <rects>
        <_>
          6 10 3 6 -1.</_>
        <_>
          7 11 1 6 3.</_></rects>
      <tilted>1</tilted></_>
    <_>
      <rects>
        <_>
          6 14 14 3 -1.</_>
        <_>
          6 15 14 1 2.</_></rects>
      <tilted>0</tilted></_>
    <_>
      <rects>
        <_>
          7 3 12 4 -1.</_>
        <_>
          10 6 6 4 2.</_></rects>
      <tilted>1</tilted></_>
    <_>
      <rects>
        <_>
          7 9 4 6 -1.</_>
        <_>
          8 10 2 6 2.</_></rects>
      <tilted>1</tilted></_>
    <_>
      <rects>
        <_>
          7 14 13 3 -1.</_>
        <_>
          7 15 13 1 2.</_></rects>
      <tilted>0</tilted></_>
    <_>
      <rects>
        <_>
          8 0 4 4 -1.</_>
        <_>
          8 0 2 4 2.</_></rects>
      <tilted>1</tilted></_>
    <_>
      <rects>
        <_>
          8 1 8 17 -1.</_>
        <_>
          10 1 4 17 2.</_></rects>
      <tilted>0</tilted></_>
    <_>
      <rects>
        <_>
          8 2 3 6 -1.</_>
        <_>
          6 4 3 2 3.</_></rects>
      <tilted>1</tilted></_>
    <_>
      <rects>
        <_>
          8 4 4 14 -1.</_>
        <_>
          9 4 2 14 2.</_></rects>
      <tilted>0</tilted></_>
    <_>
      <rects>
        <_>
          8 8 4 3 -1.</_>
        <_>
          9 9 2 3 2.</_></rects>
      <tilted>1</tilted></_>
    <_>
      <rects>
        <_>
          8 8 3 5 -1.</_>
        <_>
          9 9 1 5 3.</_></rects>
      <tilted>1</tilted></_>
    <_>
      <rects>
        <_>
          8 8 4 8 -1.</_>
        <_>
          9 9 2 8 2.</_></rects>
      <tilted>1</tilted></_>
    <_>
      <rects>
        <_>
          8 10 3 6 -1.</_>
        <_>
          9 11 1 6 3.</_></rects>
      <tilted>1</tilted></_>
    <_>
      <rects>
        <_>
          8 11 4 7 -1.</_>
        <_>
          9 11 2 7 2.</_></rects>
      <tilted>0</tilted></_>
    <_>
      <rects>
        <_>
          8 11 4 9 -1.</_>
        <_>
          9 11 2 9 2.</_></rects>
      <tilted>0</tilted></_>
    <_>
      <rects>
        <_>
          8 12 4 8 -1.</_>
        <_>
          9 12 2 8 2.</_></rects>
      <tilted>0</tilted></_>
    <_>
      <rects>
        <_>
          9 0 11 2 -1.</_>
        <_>
          9 0 11 1 2.</_></rects>
      <tilted>1</tilted></_>
    <_>
      <rects>
        <_>
          9 1 2 15 -1.</_>
        <_>
          10 1 1 15 2.</_></rects>
      <tilted>0</tilted></_>
    <_>
      <rects>
        <_>
          9 1 4 18 -1.</_>
        <_>
          10 1 2 18 2.</_></rects>
      <tilted>0</tilted></_>
    <_>
      <rects>
        <_>
          9 1 9 2 -1.</_>
        <_>
          12 4 3 2 3.</_></rects>
      <tilted>1</tilted></_>
    <_>
      <rects>
        <_>
          9 1 11 8 -1.</_>
        <_>
          9 1 11 4 2.</_></rects>
      <tilted>1</tilted></_>
    <_>
      <rects>
        <_>
          9 2 2 6 -1.</_>
        <_>
          9 2 1 6 2.</_></rects>
      <tilted>1</tilted></_>
    <_>
      <rects>
        <_>
          9 2 2 9 -1.</_>
        <_>
          9 2 1 9 2.</_></rects>
      <tilted>1</tilted></_>
    <_>
      <rects>
        <_>
          9 3 2 9 -1.</_>
        <_>
          9 3 1 9 2.</_></rects>
      <tilted>1</tilted></_>
    <_>
      <rects>
        <_>
          9 5 2 4 -1.</_>
        <_>
          9 5 1 4 2.</_></rects>
      <tilted>1</tilted></_>
    <_>
      <rects>
        <_>
          9 6 11 4 -1.</_>
        <_>
          9 7 11 2 2.</_></rects>
      <tilted>0</tilted></_>
    <_>
      <rects>
        <_>
          9 8 3 8 -1.</_>
        <_>
          10 9 1 8 3.</_></rects>
      <tilted>1</tilted></_>
    <_>
      <rects>
        <_>
          9 11 4 7 -1.</_>
        <_>
          10 11 2 7 2.</_></rects>
      <tilted>0</tilted></_>
    <_>
      <rects>
        <_>
          10 0 6 9 -1.</_>
        <_>
          12 2 2 9 3.</_></rects>
      <tilted>1</tilted></_>
    <_>
      <rects>
        <_>
          10 2 1 4 -1.</_>
        <_>
          9 3 1 2 2.</_></rects>
      <tilted>1</tilted></_>
    <_>
      <rects>
        <_>
          10 2 10 18 -1.</_>
        <_>
          10 8 10 6 2.</_></rects>
      <tilted>0</tilted></_>
    <_>
      <rects>
        <_>
          10 3 2 14 -1.</_>
        <_>
          11 3 1 14 2.</_></rects>
      <tilted>0</tilted></_>
    <_>
      <rects>
        <_>
          10 8 10 4 -1.</_>
        <_>
          10 9 10 2 2.</_></rects>
      <tilted>0</tilted></_>
    <_>
      <rects>
        <_>
          10 12 9 8 -1.</_>
        <_>
          13 12 3 8 2.</_></rects>
      <tilted>0</tilted></_>
    <_>
      <rects>
        <_>
          11 0 2 10 -1.</_>
        <_>
          11 0 1 10 2.</_></rects>
      <tilted>1</tilted></_>
    <_>
      <rects>
        <_>
          11 3 6 2 -1.</_>
        <_>
          13 5 2 2 3.</_></rects>
      <tilted>1</tilted></_>
    <_>
      <rects>
        <_>
          11 8 7 4 -1.</_>
        <_>
          11 9 7 2 2.</_></rects>
      <tilted>0</tilted></_>
    <_>
      <rects>
        <_>
          11 9 9 4 -1.</_>
        <_>
          11 10 9 2 2.</_></rects>
      <tilted>0</tilted></_>
    <_>
      <rects>
        <_>
          12 0 6 7 -1.</_>
        <_>
          12 0 3 7 2.</_></rects>
      <tilted>1</tilted></_>
    <_>
      <rects>
        <_>
          12 8 4 5 -1.</_>
        <_>
          13 8 2 5 2.</_></rects>
      <tilted>0</tilted></_>
    <_>
      <rects>
        <_>
          12 8 7 4 -1.</_>
        <_>
          12 9 7 2 2.</_></rects>
      <tilted>0</tilted></_>
    <_>
      <rects>
        <_>
          12 9 7 9 -1.</_>
        <_>
          12 12 7 3 2.</_></rects>
      <tilted>0</tilted></_>
    <_>
      <rects>
        <_>
          12 12 1 2 -1.</_>
        <_>
          12 13 1 1 2.</_></rects>
      <tilted>0</tilted></_>
    <_>
      <rects>
        <_>
          13 4 6 16 -1.</_>
        <_>
          15 4 2 16 2.</_></rects>
      <tilted>0</tilted></_>
    <_>
      <rects>
        <_>
          13 4 3 8 -1.</_>
        <_>
          11 6 3 4 2.</_></rects>
      <tilted>1</tilted></_>
    <_>
      <rects>
        <_>
          13 7 1 6 -1.</_>
        <_>
          13 7 1 3 2.</_></rects>
      <tilted>1</tilted></_>
    <_>
      <rects>
        <_>
          13 7 4 13 -1.</_>
        <_>
          15 7 2 13 2.</_></rects>
      <tilted>0</tilted></_>
    <_>
      <rects>
        <_>
          13 9 6 3 -1.</_>
        <_>
          12 10 6 1 3.</_></rects>
      <tilted>1</tilted></_>
    <_>
      <rects>
        <_>
          14 0 1 20 -1.</_>
        <_>
          14 5 1 10 2.</_></rects>
      <tilted>0</tilted></_>
    <_>
      <rects>
        <_>
          14 1 4 11 -1.</_>
        <_>
          14 1 2 11 2.</_></rects>
      <tilted>1</tilted></_>
    <_>
      <rects>
        <_>
          14 5 6 15 -1.</_>
        <_>
          16 5 2 15 2.</_></rects>
      <tilted>0</tilted></_>
    <_>
      <rects>
        <_>
          14 6 4 11 -1.</_>
        <_>
          16 6 2 11 2.</_></rects>
      <tilted>0</tilted></_>
    <_>
      <rects>
        <_>
          15 0 4 12 -1.</_>
        <_>
          15 0 2 12 2.</_></rects>
      <tilted>1</tilted></_>
    <_>
      <rects>
        <_>
          15 9 3 6 -1.</_>
        <_>
          13 11 3 2 3.</_></rects>
      <tilted>1</tilted></_>
    <_>
      <rects>
        <_>
          16 9 2 9 -1.</_>
        <_>
          16 9 1 9 2.</_></rects>
      <tilted>1</tilted></_>
    <_>
      <rects>
        <_>
          16 10 2 6 -1.</_>
        <_>
          14 12 2 2 3.</_></rects>
      <tilted>1</tilted></_>
    <_>
      <rects>
        <_>
          18 0 2 20 -1.</_>
        <_>
          19 0 1 20 2.</_></rects>
      <tilted>0</tilted></_></features></cascade>
</opencv_storage>
