<?xml version="1.0"?>
<opencv_storage>
<cascade>
  <stageType>BOOST</stageType>
  <featureType>HAAR</featureType>
  <height>12</height>
  <width>12</width>
  <stageParams>
    <boostType>GAB</boostType>
    <minHitRate>0.89999997615814209</minHitRate>
    <maxFalseAlarm>0.30000001192092896</maxFalseAlarm>
    <weightTrimRate>0.94999999999999996</weightTrimRate>
    <maxDepth>1</maxDepth>
    <maxWeakCount>100</maxWeakCount></stageParams>
  <featureParams>
    <maxCatCount>0</maxCatCount>
    <featSize>1</featSize>
    <mode>ALL</mode></featureParams>
  <stageNum>10</stageNum>
  <stages>
    <!-- stage 0 -->
    <_>
      <maxWeakCount>1</maxWeakCount>
      <stageThreshold>1.</stageThreshold>
      <weakClassifiers>
        <_>
          <internalNodes>
            0 -1 2 -0.044854223728179932</internalNodes>
          <leafValues>
            -1. 1.</leafValues></_></weakClassifiers></_>
    <!-- stage 1 -->
    <_>
      <maxWeakCount>1</maxWeakCount>
      <stageThreshold>1.</stageThreshold>
      <weakClassifiers>
        <_>
          <internalNodes>
            0 -1 3 -0.28855431079864502</internalNodes>
          <leafValues>
            1. -0.77777779102325439</leafValues></_></weakClassifiers></_>
    <!-- stage 2 -->
    <_>
      <maxWeakCount>1</maxWeakCount>
      <stageThreshold>0.99878859519958496</stageThreshold>
      <weakClassifiers>
        <_>
          <internalNodes>
            0 -1 4 -0.26610046625137329</internalNodes>
          <leafValues>
            0.99878859519958496 -1.</leafValues></_></weakClassifiers></_>
    <!-- stage 3 -->
    <_>
      <maxWeakCount>2</maxWeakCount>
      <stageThreshold>1.9981834888458252</stageThreshold>
      <weakClassifiers>
        <_>
          <internalNodes>
            0 -1 1 0.0020835790783166885</internalNodes>
          <leafValues>
            0.9981834888458252 -1.</leafValues></_>
        <_>
          <internalNodes>
            0 -1 10 -0.0013663715217262506</internalNodes>
          <leafValues>
            -0.42097571492195129 1.</leafValues></_></weakClassifiers></_>
    <!-- stage 4 -->
    <_>
      <maxWeakCount>1</maxWeakCount>
      <stageThreshold>0.99878859519958496</stageThreshold>
      <weakClassifiers>
        <_>
          <internalNodes>
            0 -1 9 -0.0058360043913125992</internalNodes>
          <leafValues>
            -1. 0.99878859519958496</leafValues></_></weakClassifiers></_>
    <!-- stage 5 -->
    <_>
      <maxWeakCount>1</maxWeakCount>
      <stageThreshold>0.99939411878585815</stageThreshold>
      <weakClassifiers>
        <_>
          <internalNodes>
            0 -1 8 0.00098521704785525799</internalNodes>
          <leafValues>
            0.99939411878585815 -1.</leafValues></_></weakClassifiers></_>
    <!-- stage 6 -->
    <_>
      <maxWeakCount>1</maxWeakCount>
      <stageThreshold>0.99878859519958496</stageThreshold>
      <weakClassifiers>
        <_>
          <internalNodes>
            0 -1 7 -0.0025272965431213379</internalNodes>
          <leafValues>
            -1. 0.99878859519958496</leafValues></_></weakClassifiers></_>
    <!-- stage 7 -->
    <_>
      <maxWeakCount>2</maxWeakCount>
      <stageThreshold>1.9981834888458252</stageThreshold>
      <weakClassifiers>
        <_>
          <internalNodes>
            0 -1 5 -0.010146498680114746</internalNodes>
          <leafValues>
            -1. 0.9981834888458252</leafValues></_>
        <_>
          <internalNodes>
            0 -1 5 0.029677215963602066</internalNodes>
          <leafValues>
            1. -0.91337031126022339</leafValues></_></weakClassifiers></_>
    <!-- stage 8 -->
    <_>
      <maxWeakCount>1</maxWeakCount>
      <stageThreshold>0.99878859519958496</stageThreshold>
      <weakClassifiers>
        <_>
          <internalNodes>
            0 -1 6 0.15339186787605286</internalNodes>
          <leafValues>
            0.99878859519958496 -1.</leafValues></_></weakClassifiers></_>
    <!-- stage 9 -->
    <_>
      <maxWeakCount>1</maxWeakCount>
      <stageThreshold>0.99939411878585815</stageThreshold>
      <weakClassifiers>
        <_>
          <internalNodes>
            0 -1 0 -1.4177393913269043</internalNodes>
          <leafValues>
            -1. 0.99939411878585815</leafValues></_></weakClassifiers></_></stages>
  <features>
    <_>
      <rects>
        <_>
          0 0 3 1 -1.</_>
        <_>
          1 0 1 1 2.</_></rects>
      <tilted>0</tilted></_>
    <_>
      <rects>
        <_>
          0 0 2 2 -1.</_>
        <_>
          0 1 2 1 2.</_></rects>
      <tilted>0</tilted></_>
    <_>
      <rects>
        <_>
          0 0 10 1 -1.</_>
        <_>
          5 0 5 1 2.</_></rects>
      <tilted>0</tilted></_>
    <_>
      <rects>
        <_>
          0 3 12 6 -1.</_>
        <_>
          4 5 4 2 9.</_></rects>
      <tilted>0</tilted></_>
    <_>
      <rects>
        <_>
          0 4 12 6 -1.</_>
        <_>
          4 6 4 2 9.</_></rects>
      <tilted>0</tilted></_>
    <_>
      <rects>
        <_>
          4 0 8 1 -1.</_>
        <_>
          8 0 4 1 2.</_></rects>
      <tilted>0</tilted></_>
    <_>
      <rects>
        <_>
          8 2 4 10 -1.</_>
        <_>
          10 2 2 10 2.</_></rects>
      <tilted>0</tilted></_>
    <_>
      <rects>
        <_>
          9 10 3 2 -1.</_>
        <_>
          9 11 3 1 2.</_></rects>
      <tilted>0</tilted></_>
    <_>
      <rects>
        <_>
          10 0 2 4 -1.</_>
        <_>
          10 2 2 2 2.</_></rects>
      <tilted>0</tilted></_>
    <_>
      <rects>
        <_>
          11 0 1 4 -1.</_>
        <_>
          11 1 1 2 2.</_></rects>
      <tilted>0</tilted></_>
    <_>
      <rects>
        <_>
          11 1 1 4 -1.</_>
        <_>
          11 3 1 2 2.</_></rects>
      <tilted>0</tilted></_></features></cascade>
</opencv_storage>
